<?xml version="1.0"?>
<opencv_storage>
<cascade>
  <stageType>BOOST</stageType>
  <featureType>HAAR</featureType>
  <height>20</height>
  <width>20</width>
  <stageParams>
    <boostType>GAB</boostType>
    <minHitRate>9.9500000476837158e-01</minHitRate>
    <maxFalseAlarm>5.0000000000000000e-01</maxFalseAlarm>
    <weightTrimRate>9.4999998807907104e-01</weightTrimRate>
    <maxDepth>1</maxDepth>
    <maxWeakCount>100</maxWeakCount></stageParams>
  <featureParams>
    <maxCatCount>0</maxCatCount>
    <featSize>1</featSize>
    <mode>BASIC</mode></featureParams>
  <stageNum>19</stageNum>
  <stages>
    <!-- stage 0 -->
    <_>
      <maxWeakCount>3</maxWeakCount>
      <stageThreshold>-1.1965969800949097e+00</stageThreshold>
      <weakClassifiers>
        <_>
          <internalNodes>
            0 -1 8 -3.1255346536636353e-01</internalNodes>
          <leafValues>
            8.0281692743301392e-01 -9.5472443103790283e-01</leafValues></_>
        <_>
          <internalNodes>
            0 -1 73 -6.9645778276026249e-03</internalNodes>
          <leafValues>
            7.4747675657272339e-01 -9.0079814195632935e-01</leafValues></_>
        <_>
          <internalNodes>
            0 -1 12 -7.1996850892901421e-03</internalNodes>
          <leafValues>
            6.5892553329467773e-01 -9.0260040760040283e-01</leafValues></_></weakClassifiers></_>
    <!-- stage 1 -->
    <_>
      <maxWeakCount>3</maxWeakCount>
      <stageThreshold>-1.3119125366210938e+00</stageThreshold>
      <weakClassifiers>
        <_>
          <internalNodes>
            0 -1 37 -3.8003647327423096e-01</internalNodes>
          <leafValues>
            6.3934427499771118e-01 -9.2787522077560425e-01</leafValues></_>
        <_>
          <internalNodes>
            0 -1 30 -6.7557960748672485e-02</internalNodes>
          <leafValues>
            6.6839522123336792e-01 -8.8273721933364868e-01</leafValues></_>
        <_>
          <internalNodes>
            0 -1 17 -1.0597622394561768e-01</internalNodes>
          <leafValues>
            4.9869996309280396e-01 -8.5714870691299438e-01</leafValues></_></weakClassifiers></_>
    <!-- stage 2 -->
    <_>
      <maxWeakCount>4</maxWeakCount>
      <stageThreshold>-1.7216527462005615e+00</stageThreshold>
      <weakClassifiers>
        <_>
          <internalNodes>
            0 -1 37 -3.8572651147842407e-01</internalNodes>
          <leafValues>
            4.2028984427452087e-01 -9.2534381151199341e-01</leafValues></_>
        <_>
          <internalNodes>
            0 -1 7 -2.0329570770263672e-01</internalNodes>
          <leafValues>
            7.1781265735626221e-01 -6.9918090105056763e-01</leafValues></_>
        <_>
          <internalNodes>
            0 -1 4 5.8489188551902771e-02</internalNodes>
          <leafValues>
            -4.9218645691871643e-01 8.0474823713302612e-01</leafValues></_>
        <_>
          <internalNodes>
            0 -1 65 -6.5433708950877190e-03</internalNodes>
          <leafValues>
            3.9505845308303833e-01 -9.3228811025619507e-01</leafValues></_></weakClassifiers></_>
    <!-- stage 3 -->
    <_>
      <maxWeakCount>5</maxWeakCount>
      <stageThreshold>-1.9895874261856079e+00</stageThreshold>
      <weakClassifiers>
        <_>
          <internalNodes>
            0 -1 63 -1.8568001687526703e-01</internalNodes>
          <leafValues>
            6.5957444906234741e-01 -9.0769231319427490e-01</leafValues></_>
        <_>
          <internalNodes>
            0 -1 5 -2.6543933153152466e-01</internalNodes>
          <leafValues>
            1.7303358018398285e-01 -7.9894256591796875e-01</leafValues></_>
        <_>
          <internalNodes>
            0 -1 36 4.8957541584968567e-03</internalNodes>
          <leafValues>
            -7.5761675834655762e-01 3.1548702716827393e-01</leafValues></_>
        <_>
          <internalNodes>
            0 -1 81 6.8549835123121738e-04</internalNodes>
          <leafValues>
            2.1542787551879883e-01 -9.7968417406082153e-01</leafValues></_>
        <_>
          <internalNodes>
            0 -1 82 -1.9783703610301018e-03</internalNodes>
          <leafValues>
            -9.3346923589706421e-01 2.5923636555671692e-01</leafValues></_></weakClassifiers></_>
    <!-- stage 4 -->
    <_>
      <maxWeakCount>4</maxWeakCount>
      <stageThreshold>-1.3605581521987915e+00</stageThreshold>
      <weakClassifiers>
        <_>
          <internalNodes>
            0 -1 29 -4.3891319632530212e-01</internalNodes>
          <leafValues>
            6.7741936445236206e-01 -8.8446968793869019e-01</leafValues></_>
        <_>
          <internalNodes>
            0 -1 62 -2.2826595231890678e-03</internalNodes>
          <leafValues>
            7.9974658787250519e-02 -8.0130386352539063e-01</leafValues></_>
        <_>
          <internalNodes>
            0 -1 42 8.6850067600607872e-03</internalNodes>
          <leafValues>
            1.5507268905639648e-01 -1.</leafValues></_>
        <_>
          <internalNodes>
            0 -1 32 1.0210538282990456e-02</internalNodes>
          <leafValues>
            1.7014269530773163e-01 -9.8247671127319336e-01</leafValues></_></weakClassifiers></_>
    <!-- stage 5 -->
    <_>
      <maxWeakCount>5</maxWeakCount>
      <stageThreshold>-1.5680388212203979e+00</stageThreshold>
      <weakClassifiers>
        <_>
          <internalNodes>
            0 -1 61 5.5859979242086411e-02</internalNodes>
          <leafValues>
            -8.7253981828689575e-01 8.9999997615814209e-01</leafValues></_>
        <_>
          <internalNodes>
            0 -1 54 -3.8013868033885956e-03</internalNodes>
          <leafValues>
            2.6413974165916443e-01 -7.9115092754364014e-01</leafValues></_>
        <_>
          <internalNodes>
            0 -1 56 -2.3100376129150391e-03</internalNodes>
          <leafValues>
            1.9813194870948792e-01 -1.</leafValues></_>
        <_>
          <internalNodes>
            0 -1 18 -4.1803792119026184e-02</internalNodes>
          <leafValues>
            6.5083461999893188e-01 -4.7812151908874512e-01</leafValues></_>
        <_>
          <internalNodes>
            0 -1 50 -1.2746926397085190e-02</internalNodes>
          <leafValues>
            -1. 3.7564158439636230e-01</leafValues></_></weakClassifiers></_>
    <!-- stage 6 -->
    <_>
      <maxWeakCount>3</maxWeakCount>
      <stageThreshold>-1.4688922166824341e+00</stageThreshold>
      <weakClassifiers>
        <_>
          <internalNodes>
            0 -1 58 1.0646089911460876e-01</internalNodes>
          <leafValues>
            -8.7890255451202393e-01 5.3333336114883423e-01</leafValues></_>
        <_>
          <internalNodes>
            0 -1 69 -1.4146743342280388e-04</internalNodes>
          <leafValues>
            2.2818808257579803e-01 -8.6874842643737793e-01</leafValues></_>
        <_>
          <internalNodes>
            0 -1 35 -2.8469941753428429e-05</internalNodes>
          <leafValues>
            3.5880219936370850e-01 -8.1817770004272461e-01</leafValues></_></weakClassifiers></_>
    <!-- stage 7 -->
    <_>
      <maxWeakCount>3</maxWeakCount>
      <stageThreshold>-1.4918140172958374e+00</stageThreshold>
      <weakClassifiers>
        <_>
          <internalNodes>
            0 -1 24 -1.0653354972600937e-01</internalNodes>
          <leafValues>
            3.0769231915473938e-01 -8.9758455753326416e-01</leafValues></_>
        <_>
          <internalNodes>
            0 -1 71 -3.1503946956945583e-05</internalNodes>
          <leafValues>
            4.7620832920074463e-02 -8.4904175996780396e-01</leafValues></_>
        <_>
          <internalNodes>
            0 -1 78 -2.8545664463308640e-05</internalNodes>
          <leafValues>
            3.4843930602073669e-01 -6.4185035228729248e-01</leafValues></_></weakClassifiers></_>
    <!-- stage 8 -->
    <_>
      <maxWeakCount>5</maxWeakCount>
      <stageThreshold>-2.0120377540588379e+00</stageThreshold>
      <weakClassifiers>
        <_>
          <internalNodes>
            0 -1 66 3.3570811152458191e-02</internalNodes>
          <leafValues>
            -8.6741364002227783e-01 1.</leafValues></_>
        <_>
          <internalNodes>
            0 -1 60 -6.8758861743845046e-05</internalNodes>
          <leafValues>
            4.0233284235000610e-02 -8.4633034467697144e-01</leafValues></_>
        <_>
          <internalNodes>
            0 -1 76 -2.0726363800349645e-05</internalNodes>
          <leafValues>
            2.5851458311080933e-01 -7.7908462285995483e-01</leafValues></_>
        <_>
          <internalNodes>
            0 -1 68 -1.7129800980910659e-03</internalNodes>
          <leafValues>
            -8.4318518638610840e-01 2.5416082143783569e-01</leafValues></_>
        <_>
          <internalNodes>
            0 -1 27 3.3980595617322251e-05</internalNodes>
          <leafValues>
            -6.0018676519393921e-01 4.0968668460845947e-01</leafValues></_></weakClassifiers></_>
    <!-- stage 9 -->
    <_>
      <maxWeakCount>3</maxWeakCount>
      <stageThreshold>-1.7576361894607544e+00</stageThreshold>
      <weakClassifiers>
        <_>
          <internalNodes>
            0 -1 33 8.6043309420347214e-03</internalNodes>
          <leafValues>
            -9.5698922872543335e-01 -1.4649681746959686e-01</leafValues></_>
        <_>
          <internalNodes>
            0 -1 23 -7.0440107956528664e-03</internalNodes>
          <leafValues>
            3.2508677244186401e-01 -8.2840758562088013e-01</leafValues></_>
        <_>
          <internalNodes>
            0 -1 72 -1.2803738936781883e-02</internalNodes>
          <leafValues>
            3.5685861110687256e-01 -7.8273183107376099e-01</leafValues></_></weakClassifiers></_>
    <!-- stage 10 -->
    <_>
      <maxWeakCount>3</maxWeakCount>
      <stageThreshold>-1.5262449979782104e+00</stageThreshold>
      <weakClassifiers>
        <_>
          <internalNodes>
            0 -1 47 4.4025192037224770e-03</internalNodes>
          <leafValues>
            -9.1243779659271240e-01 4.8780485987663269e-02</leafValues></_>
        <_>
          <internalNodes>
            0 -1 39 -2.1605533547699451e-03</internalNodes>
          <leafValues>
            1.9385424256324768e-01 -8.6815106868743896e-01</leafValues></_>
        <_>
          <internalNodes>
            0 -1 21 5.6953616440296173e-03</internalNodes>
          <leafValues>
            -7.0687443017959595e-01 3.5537996888160706e-01</leafValues></_></weakClassifiers></_>
    <!-- stage 11 -->
    <_>
      <maxWeakCount>5</maxWeakCount>
      <stageThreshold>-1.6474647521972656e+00</stageThreshold>
      <weakClassifiers>
        <_>
          <internalNodes>
            0 -1 49 1.6285020112991333e-01</internalNodes>
          <leafValues>
            -8.7193971872329712e-01 5.1999998092651367e-01</leafValues></_>
        <_>
          <internalNodes>
            0 -1 19 -8.9332520961761475e-02</internalNodes>
          <leafValues>
            4.4125989079475403e-01 -5.9299862384796143e-01</leafValues></_>
        <_>
          <internalNodes>
            0 -1 0 -1.3777618296444416e-03</internalNodes>
          <leafValues>
            -8.1792974472045898e-01 2.2597861289978027e-01</leafValues></_>
        <_>
          <internalNodes>
            0 -1 77 -8.4318872541189194e-03</internalNodes>
          <leafValues>
            2.2559466958045959e-01 -7.4526894092559814e-01</leafValues></_>
        <_>
          <internalNodes>
            0 -1 36 5.8224876411259174e-03</internalNodes>
          <leafValues>
            -5.8348852396011353e-01 3.4641382098197937e-01</leafValues></_></weakClassifiers></_>
    <!-- stage 12 -->
    <_>
      <maxWeakCount>6</maxWeakCount>
      <stageThreshold>-1.7218142747879028e+00</stageThreshold>
      <weakClassifiers>
        <_>
          <internalNodes>
            0 -1 43 -1.2036085128784180e-01</internalNodes>
          <leafValues>
            6.1904764175415039e-01 -8.6866790056228638e-01</leafValues></_>
        <_>
          <internalNodes>
            0 -1 79 -4.1213919757865369e-05</internalNodes>
          <leafValues>
            -1.0559613257646561e-01 -8.4056955575942993e-01</leafValues></_>
        <_>
          <internalNodes>
            0 -1 22 -5.1116170652676374e-05</internalNodes>
          <leafValues>
            2.3237784206867218e-01 -6.5270161628723145e-01</leafValues></_>
        <_>
          <internalNodes>
            0 -1 11 6.6731387050822377e-05</internalNodes>
          <leafValues>
            -5.0953233242034912e-01 4.0394231677055359e-01</leafValues></_>
        <_>
          <internalNodes>
            0 -1 1 2.5235405191779137e-03</internalNodes>
          <leafValues>
            -7.3881566524505615e-01 3.0318087339401245e-01</leafValues></_>
        <_>
          <internalNodes>
            0 -1 80 -2.1265059331199154e-05</internalNodes>
          <leafValues>
            3.0278411507606506e-01 -6.4505469799041748e-01</leafValues></_></weakClassifiers></_>
    <!-- stage 13 -->
    <_>
      <maxWeakCount>5</maxWeakCount>
      <stageThreshold>-1.5813424587249756e+00</stageThreshold>
      <weakClassifiers>
        <_>
          <internalNodes>
            0 -1 53 3.2907836139202118e-02</internalNodes>
          <leafValues>
            -8.6529469490051270e-01 6.6666668653488159e-01</leafValues></_>
        <_>
          <internalNodes>
            0 -1 25 3.5848475992679596e-02</internalNodes>
          <leafValues>
            -5.8082401752471924e-01 3.6549809575080872e-01</leafValues></_>
        <_>
          <internalNodes>
            0 -1 26 -3.7955120205879211e-02</internalNodes>
          <leafValues>
            2.3082214593887329e-01 -7.0799255371093750e-01</leafValues></_>
        <_>
          <internalNodes>
            0 -1 6 -3.7252968177199364e-03</internalNodes>
          <leafValues>
            -8.0121093988418579e-01 1.8805547058582306e-01</leafValues></_>
        <_>
          <internalNodes>
            0 -1 74 -1.4369265176355839e-02</internalNodes>
          <leafValues>
            4.3516504764556885e-01 -4.4479599595069885e-01</leafValues></_></weakClassifiers></_>
    <!-- stage 14 -->
    <_>
      <maxWeakCount>5</maxWeakCount>
      <stageThreshold>-1.7939403057098389e+00</stageThreshold>
      <weakClassifiers>
        <_>
          <internalNodes>
            0 -1 38 -1.2825487554073334e-01</internalNodes>
          <leafValues>
            -1.4606741070747375e-01 -9.0180361270904541e-01</leafValues></_>
        <_>
          <internalNodes>
            0 -1 31 -7.8597874380648136e-04</internalNodes>
          <leafValues>
            -5.3984936326742172e-02 -7.4124759435653687e-01</leafValues></_>
        <_>
          <internalNodes>
            0 -1 40 -1.6203538980334997e-03</internalNodes>
          <leafValues>
            1.8640348315238953e-01 -6.9488185644149780e-01</leafValues></_>
        <_>
          <internalNodes>
            0 -1 51 -1.6983671113848686e-02</internalNodes>
          <leafValues>
            4.0812456607818604e-01 -4.3788710236549377e-01</leafValues></_>
        <_>
          <internalNodes>
            0 -1 67 -2.1320479572750628e-04</internalNodes>
          <leafValues>
            3.3973208069801331e-01 -6.1986798048019409e-01</leafValues></_></weakClassifiers></_>
    <!-- stage 15 -->
    <_>
      <maxWeakCount>6</maxWeakCount>
      <stageThreshold>-1.8038331270217896e+00</stageThreshold>
      <weakClassifiers>
        <_>
          <internalNodes>
            0 -1 70 -3.1229011714458466e-02</internalNodes>
          <leafValues>
            2.0930232107639313e-01 -8.8314175605773926e-01</leafValues></_>
        <_>
          <internalNodes>
            0 -1 15 6.4080581068992615e-02</internalNodes>
          <leafValues>
            -6.2274593114852905e-01 1.4073632657527924e-01</leafValues></_>
        <_>
          <internalNodes>
            0 -1 14 -1.3649317435920238e-02</internalNodes>
          <leafValues>
            4.6851992607116699e-01 -3.7735241651535034e-01</leafValues></_>
        <_>
          <internalNodes>
            0 -1 3 1.3481506612151861e-03</internalNodes>
          <leafValues>
            2.7134454250335693e-01 -6.1673361063003540e-01</leafValues></_>
        <_>
          <internalNodes>
            0 -1 59 -4.5890299952588975e-04</internalNodes>
          <leafValues>
            3.9370119571685791e-01 -4.3472161889076233e-01</leafValues></_>
        <_>
          <internalNodes>
            0 -1 10 -1.0370101779699326e-02</internalNodes>
          <leafValues>
            -8.7926185131072998e-01 2.4278411269187927e-01</leafValues></_></weakClassifiers></_>
    <!-- stage 16 -->
    <_>
      <maxWeakCount>6</maxWeakCount>
      <stageThreshold>-1.7990220785140991e+00</stageThreshold>
      <weakClassifiers>
        <_>
          <internalNodes>
            0 -1 57 2.5815848261117935e-02</internalNodes>
          <leafValues>
            -8.6367881298065186e-01 7.5000000000000000e-01</leafValues></_>
        <_>
          <internalNodes>
            0 -1 28 -5.5844102462287992e-05</internalNodes>
          <leafValues>
            -1.0850886255502701e-01 -8.1972688436508179e-01</leafValues></_>
        <_>
          <internalNodes>
            0 -1 45 -2.0594654604792595e-02</internalNodes>
          <leafValues>
            -8.5145258903503418e-01 1.0713873803615570e-01</leafValues></_>
        <_>
          <internalNodes>
            0 -1 13 -8.2512758672237396e-03</internalNodes>
          <leafValues>
            3.6326515674591064e-01 -4.7090446949005127e-01</leafValues></_>
        <_>
          <internalNodes>
            0 -1 34 3.7611771840602160e-03</internalNodes>
          <leafValues>
            -6.2467300891876221e-01 2.5125119090080261e-01</leafValues></_>
        <_>
          <internalNodes>
            0 -1 16 -5.9760652482509613e-02</internalNodes>
          <leafValues>
            -1. 1.6160428524017334e-01</leafValues></_></weakClassifiers></_>
    <!-- stage 17 -->
    <_>
      <maxWeakCount>5</maxWeakCount>
      <stageThreshold>-1.9247802495956421e+00</stageThreshold>
      <weakClassifiers>
        <_>
          <internalNodes>
            0 -1 44 1.1410078406333923e-01</internalNodes>
          <leafValues>
            -8.5701018571853638e-01 1.</leafValues></_>
        <_>
          <internalNodes>
            0 -1 52 -4.9862028390634805e-05</internalNodes>
          <leafValues>
            -4.2506910860538483e-02 -8.4361767768859863e-01</leafValues></_>
        <_>
          <internalNodes>
            0 -1 20 3.2808724790811539e-03</internalNodes>
          <leafValues>
            -6.2235152721405029e-01 2.5959038734436035e-01</leafValues></_>
        <_>
          <internalNodes>
            0 -1 75 -5.2398288971744478e-05</internalNodes>
          <leafValues>
            2.2381664812564850e-01 -7.9791784286499023e-01</leafValues></_>
        <_>
          <internalNodes>
            0 -1 46 -3.6936767399311066e-02</internalNodes>
          <leafValues>
            -9.5043265819549561e-01 1.7438255250453949e-01</leafValues></_></weakClassifiers></_>
    <!-- stage 18 -->
    <_>
      <maxWeakCount>6</maxWeakCount>
      <stageThreshold>-2.0456511974334717e+00</stageThreshold>
      <weakClassifiers>
        <_>
          <internalNodes>
            0 -1 55 5.2266776561737061e-02</internalNodes>
          <leafValues>
            -8.5873603820800781e-01 1.</leafValues></_>
        <_>
          <internalNodes>
            0 -1 64 6.4966313540935516e-02</internalNodes>
          <leafValues>
            -4.9635431170463562e-01 8.5435914993286133e-01</leafValues></_>
        <_>
          <internalNodes>
            0 -1 2 -7.9802016261965036e-04</internalNodes>
          <leafValues>
            -8.2903045415878296e-01 1.9551357626914978e-01</leafValues></_>
        <_>
          <internalNodes>
            0 -1 9 -1.8738250946626067e-03</internalNodes>
          <leafValues>
            2.6068902015686035e-01 -6.2638086080551147e-01</leafValues></_>
        <_>
          <internalNodes>
            0 -1 41 -1.4921559020876884e-02</internalNodes>
          <leafValues>
            -8.8315325975418091e-01 1.7820416390895844e-01</leafValues></_>
        <_>
          <internalNodes>
            0 -1 48 -1.3150440645404160e-04</internalNodes>
          <leafValues>
            4.5081669092178345e-01 -4.3789774179458618e-01</leafValues></_></weakClassifiers></_></stages>
  <features>
    <_>
      <rects>
        <_>
          0 0 3 9 -1.</_>
        <_>
          0 3 3 3 3.</_></rects>
      <tilted>0</tilted></_>
    <_>
      <rects>
        <_>
          0 0 12 3 -1.</_>
        <_>
          0 1 12 1 3.</_></rects>
      <tilted>0</tilted></_>
    <_>
      <rects>
        <_>
          0 1 1 4 -1.</_>
        <_>
          0 3 1 2 2.</_></rects>
      <tilted>0</tilted></_>
    <_>
      <rects>
        <_>
          0 1 1 6 -1.</_>
        <_>
          0 3 1 2 3.</_></rects>
      <tilted>0</tilted></_>
    <_>
      <rects>
        <_>
          0 1 18 2 -1.</_>
        <_>
          6 1 6 2 3.</_></rects>
      <tilted>0</tilted></_>
    <_>
      <rects>
        <_>
          0 2 16 13 -1.</_>
        <_>
          8 2 8 13 2.</_></rects>
      <tilted>0</tilted></_>
    <_>
      <rects>
        <_>
          0 3 12 2 -1.</_>
        <_>
          0 3 6 1 2.</_>
        <_>
          6 4 6 1 2.</_></rects>
      <tilted>0</tilted></_>
    <_>
      <rects>
        <_>
          0 3 12 8 -1.</_>
        <_>
          6 3 6 8 2.</_></rects>
      <tilted>0</tilted></_>
    <_>
      <rects>
        <_>
          0 4 18 14 -1.</_>
        <_>
          9 4 9 14 2.</_></rects>
      <tilted>0</tilted></_>
    <_>
      <rects>
        <_>
          0 4 12 2 -1.</_>
        <_>
          0 5 12 1 2.</_></rects>
      <tilted>0</tilted></_>
    <_>
      <rects>
        <_>
          0 7 14 9 -1.</_>
        <_>
          0 10 14 3 3.</_></rects>
      <tilted>0</tilted></_>
    <_>
      <rects>
        <_>
          0 15 2 1 -1.</_>
        <_>
          1 15 1 1 2.</_></rects>
      <tilted>0</tilted></_>
    <_>
      <rects>
        <_>
          0 17 6 3 -1.</_>
        <_>
          3 17 3 3 2.</_></rects>
      <tilted>0</tilted></_>
    <_>
      <rects>
        <_>
          0 18 20 2 -1.</_>
        <_>
          0 19 20 1 2.</_></rects>
      <tilted>0</tilted></_>
    <_>
      <rects>
        <_>
          1 1 4 12 -1.</_>
        <_>
          1 1 2 6 2.</_>
        <_>
          3 7 2 6 2.</_></rects>
      <tilted>0</tilted></_>
    <_>
      <rects>
        <_>
          1 1 18 2 -1.</_>
        <_>
          7 1 6 2 3.</_></rects>
      <tilted>0</tilted></_>
    <_>
      <rects>
        <_>
          1 4 11 9 -1.</_>
        <_>
          1 7 11 3 3.</_></rects>
      <tilted>0</tilted></_>
    <_>
      <rects>
        <_>
          1 8 16 9 -1.</_>
        <_>
          9 8 8 9 2.</_></rects>
      <tilted>0</tilted></_>
    <_>
      <rects>
        <_>
          1 16 10 4 -1.</_>
        <_>
          1 18 10 2 2.</_></rects>
      <tilted>0</tilted></_>
    <_>
      <rects>
        <_>
          2 1 6 16 -1.</_>
        <_>
          2 1 3 8 2.</_>
        <_>
          5 9 3 8 2.</_></rects>
      <tilted>0</tilted></_>
    <_>
      <rects>
        <_>
          2 2 7 6 -1.</_>
        <_>
          2 4 7 2 3.</_></rects>
      <tilted>0</tilted></_>
    <_>
      <rects>
        <_>
          2 14 6 6 -1.</_>
        <_>
          2 16 6 2 3.</_></rects>
      <tilted>0</tilted></_>
    <_>
      <rects>
        <_>
          2 18 2 1 -1.</_>
        <_>
          3 18 1 1 2.</_></rects>
      <tilted>0</tilted></_>
    <_>
      <rects>
        <_>
          2 18 16 2 -1.</_>
        <_>
          2 19 16 1 2.</_></rects>
      <tilted>0</tilted></_>
    <_>
      <rects>
        <_>
          3 0 6 16 -1.</_>
        <_>
          3 0 3 8 2.</_>
        <_>
          6 8 3 8 2.</_></rects>
      <tilted>0</tilted></_>
    <_>
      <rects>
        <_>
          3 1 2 14 -1.</_>
        <_>
          3 8 2 7 2.</_></rects>
      <tilted>0</tilted></_>
    <_>
      <rects>
        <_>
          3 5 6 15 -1.</_>
        <_>
          6 5 3 15 2.</_></rects>
      <tilted>0</tilted></_>
    <_>
      <rects>
        <_>
          3 15 1 3 -1.</_>
        <_>
          3 16 1 1 3.</_></rects>
      <tilted>0</tilted></_>
    <_>
      <rects>
        <_>
          3 19 2 1 -1.</_>
        <_>
          4 19 1 1 2.</_></rects>
      <tilted>0</tilted></_>
    <_>
      <rects>
        <_>
          4 1 14 15 -1.</_>
        <_>
          11 1 7 15 2.</_></rects>
      <tilted>0</tilted></_>
    <_>
      <rects>
        <_>
          4 4 15 5 -1.</_>
        <_>
          9 4 5 5 3.</_></rects>
      <tilted>0</tilted></_>
    <_>
      <rects>
        <_>
          4 7 2 4 -1.</_>
        <_>
          4 7 1 2 2.</_>
        <_>
          5 9 1 2 2.</_></rects>
      <tilted>0</tilted></_>
    <_>
      <rects>
        <_>
          4 10 12 4 -1.</_>
        <_>
          4 12 12 2 2.</_></rects>
      <tilted>0</tilted></_>
    <_>
      <rects>
        <_>
          5 0 7 3 -1.</_>
        <_>
          5 1 7 1 3.</_></rects>
      <tilted>0</tilted></_>
    <_>
      <rects>
        <_>
          5 0 15 3 -1.</_>
        <_>
          5 1 15 1 3.</_></rects>
      <tilted>0</tilted></_>
    <_>
      <rects>
        <_>
          5 17 1 2 -1.</_>
        <_>
          5 18 1 1 2.</_></rects>
      <tilted>0</tilted></_>
    <_>
      <rects>
        <_>
          6 0 6 3 -1.</_>
        <_>
          6 1 6 1 3.</_></rects>
      <tilted>0</tilted></_>
    <_>
      <rects>
        <_>
          6 0 14 18 -1.</_>
        <_>
          13 0 7 18 2.</_></rects>
      <tilted>0</tilted></_>
    <_>
      <rects>
        <_>
          6 1 14 4 -1.</_>
        <_>
          13 1 7 4 2.</_></rects>
      <tilted>0</tilted></_>
    <_>
      <rects>
        <_>
          6 2 6 3 -1.</_>
        <_>
          6 3 6 1 3.</_></rects>
      <tilted>0</tilted></_>
    <_>
      <rects>
        <_>
          6 4 4 6 -1.</_>
        <_>
          6 6 4 2 3.</_></rects>
      <tilted>0</tilted></_>
    <_>
      <rects>
        <_>
          6 6 9 1 -1.</_>
        <_>
          9 6 3 1 3.</_></rects>
      <tilted>0</tilted></_>
    <_>
      <rects>
        <_>
          6 6 7 4 -1.</_>
        <_>
          6 8 7 2 2.</_></rects>
      <tilted>0</tilted></_>
    <_>
      <rects>
        <_>
          6 7 6 13 -1.</_>
        <_>
          8 7 2 13 3.</_></rects>
      <tilted>0</tilted></_>
    <_>
      <rects>
        <_>
          6 8 6 8 -1.</_>
        <_>
          8 8 2 8 3.</_></rects>
      <tilted>0</tilted></_>
    <_>
      <rects>
        <_>
          6 10 9 6 -1.</_>
        <_>
          6 13 9 3 2.</_></rects>
      <tilted>0</tilted></_>
    <_>
      <rects>
        <_>
          6 18 14 2 -1.</_>
        <_>
          13 18 7 2 2.</_></rects>
      <tilted>0</tilted></_>
    <_>
      <rects>
        <_>
          7 0 2 2 -1.</_>
        <_>
          7 1 2 1 2.</_></rects>
      <tilted>0</tilted></_>
    <_>
      <rects>
        <_>
          7 8 1 2 -1.</_>
        <_>
          7 9 1 1 2.</_></rects>
      <tilted>0</tilted></_>
    <_>
      <rects>
        <_>
          7 9 9 9 -1.</_>
        <_>
          10 9 3 9 3.</_></rects>
      <tilted>0</tilted></_>
    <_>
      <rects>
        <_>
          7 10 7 6 -1.</_>
        <_>
          7 12 7 2 3.</_></rects>
      <tilted>0</tilted></_>
    <_>
      <rects>
        <_>
          7 14 5 6 -1.</_>
        <_>
          7 17 5 3 2.</_></rects>
      <tilted>0</tilted></_>
    <_>
      <rects>
        <_>
          7 16 2 1 -1.</_>
        <_>
          8 16 1 1 2.</_></rects>
      <tilted>0</tilted></_>
    <_>
      <rects>
        <_>
          8 0 2 14 -1.</_>
        <_>
          8 0 1 7 2.</_>
        <_>
          9 7 1 7 2.</_></rects>
      <tilted>0</tilted></_>
    <_>
      <rects>
        <_>
          8 1 4 2 -1.</_>
        <_>
          8 2 4 1 2.</_></rects>
      <tilted>0</tilted></_>
    <_>
      <rects>
        <_>
          8 2 3 15 -1.</_>
        <_>
          9 2 1 15 3.</_></rects>
      <tilted>0</tilted></_>
    <_>
      <rects>
        <_>
          8 4 5 6 -1.</_>
        <_>
          8 6 5 2 3.</_></rects>
      <tilted>0</tilted></_>
    <_>
      <rects>
        <_>
          8 5 2 10 -1.</_>
        <_>
          9 5 1 10 2.</_></rects>
      <tilted>0</tilted></_>
    <_>
      <rects>
        <_>
          8 10 6 9 -1.</_>
        <_>
          10 10 2 9 3.</_></rects>
      <tilted>0</tilted></_>
    <_>
      <rects>
        <_>
          8 18 4 2 -1.</_>
        <_>
          8 18 2 1 2.</_>
        <_>
          10 19 2 1 2.</_></rects>
      <tilted>0</tilted></_>
    <_>
      <rects>
        <_>
          9 1 1 2 -1.</_>
        <_>
          9 2 1 1 2.</_></rects>
      <tilted>0</tilted></_>
    <_>
      <rects>
        <_>
          9 1 3 17 -1.</_>
        <_>
          10 1 1 17 3.</_></rects>
      <tilted>0</tilted></_>
    <_>
      <rects>
        <_>
          9 1 3 2 -1.</_>
        <_>
          9 2 3 1 2.</_></rects>
      <tilted>0</tilted></_>
    <_>
      <rects>
        <_>
          9 1 8 16 -1.</_>
        <_>
          13 1 4 16 2.</_></rects>
      <tilted>0</tilted></_>
    <_>
      <rects>
        <_>
          9 2 3 17 -1.</_>
        <_>
          10 2 1 17 3.</_></rects>
      <tilted>0</tilted></_>
    <_>
      <rects>
        <_>
          9 2 3 6 -1.</_>
        <_>
          9 5 3 3 2.</_></rects>
      <tilted>0</tilted></_>
    <_>
      <rects>
        <_>
          9 6 2 10 -1.</_>
        <_>
          10 6 1 10 2.</_></rects>
      <tilted>0</tilted></_>
    <_>
      <rects>
        <_>
          9 6 6 2 -1.</_>
        <_>
          9 6 3 1 2.</_>
        <_>
          12 7 3 1 2.</_></rects>
      <tilted>0</tilted></_>
    <_>
      <rects>
        <_>
          9 14 6 3 -1.</_>
        <_>
          9 15 6 1 3.</_></rects>
      <tilted>0</tilted></_>
    <_>
      <rects>
        <_>
          10 1 1 2 -1.</_>
        <_>
          10 2 1 1 2.</_></rects>
      <tilted>0</tilted></_>
    <_>
      <rects>
        <_>
          10 1 2 16 -1.</_>
        <_>
          11 1 1 16 2.</_></rects>
      <tilted>0</tilted></_>
    <_>
      <rects>
        <_>
          10 2 1 2 -1.</_>
        <_>
          10 3 1 1 2.</_></rects>
      <tilted>0</tilted></_>
    <_>
      <rects>
        <_>
          10 4 4 12 -1.</_>
        <_>
          10 4 2 6 2.</_>
        <_>
          12 10 2 6 2.</_></rects>
      <tilted>0</tilted></_>
    <_>
      <rects>
        <_>
          11 9 2 8 -1.</_>
        <_>
          12 9 1 8 2.</_></rects>
      <tilted>0</tilted></_>
    <_>
      <rects>
        <_>
          11 9 6 8 -1.</_>
        <_>
          11 9 3 4 2.</_>
        <_>
          14 13 3 4 2.</_></rects>
      <tilted>0</tilted></_>
    <_>
      <rects>
        <_>
          11 13 2 1 -1.</_>
        <_>
          12 13 1 1 2.</_></rects>
      <tilted>0</tilted></_>
    <_>
      <rects>
        <_>
          11 15 2 1 -1.</_>
        <_>
          12 15 1 1 2.</_></rects>
      <tilted>0</tilted></_>
    <_>
      <rects>
        <_>
          12 5 5 15 -1.</_>
        <_>
          12 10 5 5 3.</_></rects>
      <tilted>0</tilted></_>
    <_>
      <rects>
        <_>
          12 6 2 2 -1.</_>
        <_>
          12 6 1 1 2.</_>
        <_>
          13 7 1 1 2.</_></rects>
      <tilted>0</tilted></_>
    <_>
      <rects>
        <_>
          12 13 3 1 -1.</_>
        <_>
          13 13 1 1 3.</_></rects>
      <tilted>0</tilted></_>
    <_>
      <rects>
        <_>
          14 15 3 3 -1.</_>
        <_>
          15 15 1 3 3.</_></rects>
      <tilted>0</tilted></_>
    <_>
      <rects>
        <_>
          16 14 1 3 -1.</_>
        <_>
          16 15 1 1 3.</_></rects>
      <tilted>0</tilted></_>
    <_>
      <rects>
        <_>
          18 0 2 4 -1.</_>
        <_>
          18 2 2 2 2.</_></rects>
      <tilted>0</tilted></_></features></cascade>
</opencv_storage>
